digraph Tree {
node [shape=box, style="filled, rounded", color="black", fontname="helvetica"] ;
edge [fontname="helvetica"] ;
0 [label="x1 <= -0.31\nsquared_error = 0.006\nsamples = 200\nvalue = -0.417", fillcolor="#f8ddc9"] ;
1 [label="x1 <= -0.413\nsquared_error = 0.003\nsamples = 42\nvalue = -0.329", fillcolor="#eba06a"] ;
0 -> 1 [labeldistance=2.5, labelangle=45, headlabel="True"] ;
2 [label="squared_error = 0.001\nsamples = 19\nvalue = -0.284", fillcolor="#e58139"] ;
1 -> 2 ;
3 [label="squared_error = 0.001\nsamples = 23\nvalue = -0.366", fillcolor="#f1ba92"] ;
1 -> 3 ;
4 [label="x1 <= 0.312\nsquared_error = 0.005\nsamples = 158\nvalue = -0.44", fillcolor="#fbede2"] ;
0 -> 4 [labeldistance=2.5, labelangle=-45, headlabel="False"] ;
5 [label="squared_error = 0.002\nsamples = 127\nvalue = -0.466", fillcolor="#ffffff"] ;
4 -> 5 ;
6 [label="squared_error = 0.002\nsamples = 31\nvalue = -0.332", fillcolor="#eca26d"] ;
4 -> 6 ;
}