digraph Tree {
node [shape=box, style="filled, rounded", color="black", fontname="helvetica"] ;
edge [fontname="helvetica"] ;
0 [label="x1 <= 0.361\nsquared_error = 0.006\nsamples = 200\nvalue = -0.413", fillcolor="#f8dfcd"] ;
1 [label="x1 <= -0.33\nsquared_error = 0.004\nsamples = 168\nvalue = -0.431", fillcolor="#fbede3"] ;
0 -> 1 [labeldistance=2.5, labelangle=45, headlabel="True"] ;
2 [label="squared_error = 0.002\nsamples = 32\nvalue = -0.328", fillcolor="#eba06a"] ;
1 -> 2 ;
3 [label="squared_error = 0.002\nsamples = 136\nvalue = -0.455", fillcolor="#ffffff"] ;
1 -> 3 ;
4 [label="x1 <= 0.415\nsquared_error = 0.002\nsamples = 32\nvalue = -0.316", fillcolor="#ea975c"] ;
0 -> 4 [labeldistance=2.5, labelangle=-45, headlabel="False"] ;
5 [label="squared_error = 0.0\nsamples = 14\nvalue = -0.355", fillcolor="#efb489"] ;
4 -> 5 ;
6 [label="squared_error = 0.001\nsamples = 18\nvalue = -0.286", fillcolor="#e58139"] ;
4 -> 6 ;
}